{"learner":{"attributes":{"best_iteration":"9","best_ntree_limit":"10"},"feature_names":[],"feature_types":[],"gradient_booster":{"model":{"gbtree_model_param":{"num_parallel_tree":"1","num_trees":"10","size_leaf_vector":"0"},"tree_info":[0,0,0,0,0,0,0,0,0,0],"trees":[{"base_weights":[-8.211826E-1,1.600629E0,-1.8668026E0,1.9822853E0,-1.3741497E0,1.2207792E0,-1.9470383E0,1.9893334E0,-0E0,1.344E0,-1.5492064E0,1.8095238E0,-1.1111112E0,6.25E-1,-1.9732583E0,1.5942909E0,4E-1,1.4915255E0,4E-1,-0E0,-1.1428572E0,1.309091E0,-9.142858E-1,-1.9872792E0,1E0,-1.5954674E0,6.4000005E-1,1.0666667E0,-0E0],"categories":[],"categories_nodes":[],"categories_segments":[],"categories_sizes":[],"default_left":[0,0,0,0,0,0,0,0,0,0,0,0,0,0,0,0,0,0,0,0,0,0,0,0,0,0,0,0,0],"id":0,"left_children":[1,3,5,7,9,11,13,15,-1,-1,-1,17,19,21,23,-1,-1,-1,-1,-1,-1,-1,-1,25,27,-1,-1,-1,-1],"loss_changes":[2.6688613E3,3.63763E2,1.8464722E2,3.9433594E0,6.637243E1,2.8438671E1,4.9620605E1,4.822998E-1,0E0,0E0,0E0,1.9975662E-1,1.5873017E0,1.6173702E1,3.1606445E1,0E0,0E0,0E0,0E0,0E0,0E0,0E0,0E0,1.5508301E1,1.3333335E0,0E0,0E0,0E0,0E0],"parents":[2147483647,0,0,1,1,2,2,3,3,4,4,5,5,6,6,7,7,11,11,12,12,13,13,14,14,23,23,24,24],"right_children":[2,4,6,8,10,12,14,16,-1,-1,-1,18,20,22,24,-1,-1,-1,-1,-1,-1,-1,-1,26,28,-1,-1,-1,-1],"split_conditions":[7.109079E-2,5.896776E-2,8.517481E-3,1.9276872E-1,1.2732773E-2,2.8362418E-2,3.4771909E-3,2.4674384E-1,-0E0,1.344E0,-1.5492064E0,1.7062826E-2,2.2583515E-3,6.7645116E-3,1.5976997E-1,1.5942909E0,4E-1,1.4915255E0,4E-1,-0E0,-1.1428572E0,1.309091E0,-9.142858E-1,2.716149E-1,1.3272393E-2,-1.5954674E0,6.4000005E-1,1.0666667E0,-0E0],"split_indices":[2578,315,467,161,1256,2514,180,305,0,0,0,0,2,1866,3459,0,0,0,0,0,0,0,0,551,0,0,0,0,0],"split_type":[0,0,0,0,0,0,0,0,0,0,0,0,0,0,0,0,0,0,0,0,0,0,0,0,0,0,0,0,0],"sum_hessian":[1.05175E3,3.17E2,7.3475E2,2.8125E2,3.575E1,1.825E1,7.165E2,2.8025E2,1E0,5.25E0,3.05E1,1.475E1,3.5E0,7E0,7.095E2,2.7925E2,1E0,1.375E1,1E0,1E0,2.5E0,4.5E0,2.5E0,7.065E2,3E0,7.05E2,1.5E0,2E0,1E0],"tree_param":{"num_deleted":"0","num_feature":"3600","num_nodes":"29","size_leaf_vector":"0"}},{"base_weights":[-4.824067E-1,1.0794547E0,-1.0564765E0,1.2026132E0,-3.7260038E-1,8.249556E-1,-1.1465653E0,9.664305E-1,1.9607817E-1,8.0637085E-1,-8.8346434E-1,9.2718095E-1,-8.647051E-1,6.858708E-1,-1.1845233E0,-1.428058E-1,-8.5892993E-1,9.2670983E-1,-6.213175E-1,-1.1962068E0,7.385872E-1,3.0837205E-1,-9.608966E-1,7.750508E-1,1.3192986E-1],"categories":[],"categories_nodes":[],"categories_segments":[],"categories_sizes":[],"default_left":[0,0,0,0,0,0,0,0,0,0,0,0,0,0,0,0,0,0,0,0,0,0,0,0,0],"id":1,"left_children":[1,3,5,7,9,11,13,-1,-1,-1,-1,-1,15,17,19,-1,-1,-1,-1,21,23,-1,-1,-1,-1],"loss_changes":[5.3645984E2,2.923317E1,7.502954E1,4.7587585E-1,1.4597494E1,1.2602518E1,2.9853882E1,0E0,0E0,0E0,0E0,0E0,3.769095E-1,7.1929507E0,1.0082703E1,0E0,0E0,0E0,0E0,3.6288452E0,2.4842322E-1,0E0,0E0,0E0,0E0],"parents":[2147483647,0,0,1,1,2,2,3,3,4,4,5,5,6,6,12,12,13,13,14,14,19,19,20,20],"right_children":[2,4,6,8,10,12,14,-1,-1,-1,-1,-1,16,18,20,-1,-1,-1,-1,22,24,-1,-1,-1,-1],"split_conditions":[2.2995844E-2,5.7739858E-2,8.517481E-3,2.9726294E-1,8.797492E-3,4.0098514E-2,1.1599217E-2,9.664305E-1,1.9607817E-1,8.0637085E-1,-8.8346434E-1,9.2718095E-1,9.752422E-3,4.136805E-2,2.297486E-1,-1.428058E-1,-8.5892993E-1,9.2670983E-1,-6.213175E-1,7.7223685E-4,1.3588638E-2,3.0837205E-1,-9.608966E-1,7.750508E-1,1.3192986E-1],"split_indices":[2587,315,467,537,2582,188,2289,0,0,0,0,0,6,171,2643,0,0,0,0,296,0,0,0,0,0],"split_type":[0,0,0,0,0,0,0,0,0,0,0,0,0,0,0,0,0,0,0,0,0,0,0,0,0],"sum_hessian":[5.960433E2,1.599607E2,4.360826E2,1.4761249E2,1.2348218E1,1.955409E1,4.165285E2,1.4652072E2,1.0917642E0,4.146832E0,8.2013855E0,1.6588808E1,2.9652812E0,8.106676E0,4.0842184E2,1.1250358E0,1.8402454E0,6.284275E0,1.8224009E0,4.063312E2,2.09061E0,1.018614E0,4.0531262E2,1.0003616E0,1.0902486E0],"tree_param":{"num_deleted":"0","num_feature":"3600","num_nodes":"25","size_leaf_vector":"0"}},{"base_weights":[-4.1847184E-1,9.3525785E-1,-9.302351E-1,8.5555744E-1,-3.6331195E-1,4.8680323E-1,-1.041129E0,6.158705E-1,-7.311417E-1,9.6828306E-1,-7.3647255E-1,-1.0593904E0,5.8657694E-1,8.820492E-1,-1.804413E-1,-7.0685256E-1,-5.384068E-2,3.2393873E-1,-1.0717776E0,-5.4013837E-2,-8.61571E-1],"categories":[],"categories_nodes":[],"categories_segments":[],"categories_sizes":[],"default_left":[0,0,0,0,0,0,0,0,0,0,0,0,0,0,0,0,0,0,0,0,0],"id":2,"left_children":[1,3,5,-1,7,9,11,-1,-1,13,15,17,-1,-1,-1,-1,-1,-1,19,-1,-1],"loss_changes":[2.0266046E2,1.4399216E1,3.380005E1,0E0,5.8677588E0,1.0171201E1,7.1538544E0,0E0,0E0,2.1651373E0,4.4286585E-1,3.9749298E0,0E0,0E0,0E0,0E0,0E0,0E0,9.369049E-1,0E0,0E0],"parents":[2147483647,0,0,1,1,2,2,4,4,5,5,6,6,9,9,10,10,11,11,18,18],"right_children":[2,4,6,-1,8,10,12,-1,-1,14,16,18,-1,-1,-1,-1,-1,-1,20,-1,-1],"split_conditions":[2.398106E-2,5.7739858E-2,2.6584556E-2,8.5555744E-1,1.3551643E-2,8.9985184E-2,8.51021E-2,6.158705E-1,-7.311417E-1,7.1384564E-2,1.0597927E-1,3.9100952E-2,5.8657694E-1,8.820492E-1,-1.804413E-1,-7.0685256E-1,-5.384068E-2,3.2393873E-1,5.230068E-4,-5.4013837E-2,-8.61571E-1],"split_indices":[2560,315,494,0,1025,2435,139,0,0,1242,58,2281,0,0,0,0,0,0,2589,0,0],"split_type":[0,0,0,0,0,0,0,0,0,0,0,0,0,0,0,0,0,0,0,0,0],"sum_hessian":[2.9027258E2,7.940386E1,2.1086871E2,7.212699E1,7.276869E0,1.5058348E1,1.9581036E2,2.2494414E0,5.027427E0,1.0954946E1,4.1034017E0,1.9421446E2,1.595895E0,9.916073E0,1.0388724E0,3.1013052E0,1.0020965E0,1.363332E0,1.9285114E2,1.0628247E0,1.9178831E2],"tree_param":{"num_deleted":"0","num_feature":"3600","num_nodes":"21","size_leaf_vector":"0"}},{"base_weights":[-3.815251E-1,9.632927E-1,-8.292936E-1,8.0947715E-1,-1.8330313E-3,4.062301E-1,-9.8952216E-1,7.72216E-1,-6.7297E-1,3.0192935E-1,-8.184953E-1,-5.7413716E-2,-6.470189E-1],"categories":[],"categories_nodes":[],"categories_segments":[],"categories_sizes":[],"default_left":[0,0,0,0,0,0,0,0,0,0,0,0,0],"id":3,"left_children":[1,3,5,-1,-1,7,9,-1,11,-1,-1,-1,-1],"loss_changes":[8.505968E1,1.6626892E0,2.1290161E1,0E0,0E0,8.385111E0,4.6889267E0,0E0,3.4728813E-1,0E0,0E0,0E0,0E0],"parents":[2147483647,0,0,1,1,2,2,5,5,6,6,8,8],"right_children":[2,4,6,-1,-1,8,10,-1,12,-1,-1,-1,-1],"split_conditions":[1.873031E-2,6.727211E-2,3.1032838E-2,8.0947715E-1,-1.8330313E-3,7.0337825E-2,1.6058398E-2,7.72216E-1,6.729749E-2,3.0192935E-1,-8.184953E-1,-5.7413716E-2,-6.470189E-1],"split_indices":[2587,315,9,0,0,2416,2433,0,2536,0,0,0,0],"split_type":[0,0,0,0,0,0,0,0,0,0,0,0,0],"sum_hessian":[1.3892932E2,3.4415443E1,1.0451388E2,3.2722122E1,1.6933198E0,1.1821662E1,9.269222E1,7.8571324E0,3.9645295E0,1.9780785E0,9.071414E1,1.0121595E0,2.95237E0],"tree_param":{"num_deleted":"0","num_feature":"3600","num_nodes":"13","size_leaf_vector":"0"}},{"base_weights":[-3.4509385E-1,6.780568E-1,-8.570782E-1,7.767986E-1,-5.7757276E-1,5.43181E-1,-9.6856284E-1,9.889272E-2,-6.2505466E-1,-1.0437177E-2,-7.928147E-1],"categories":[],"categories_nodes":[],"categories_segments":[],"categories_sizes":[],"default_left":[0,0,0,0,0,0,0,0,0,0,0],"id":4,"left_children":[1,3,5,-1,7,-1,9,-1,-1,-1,-1],"loss_changes":[3.6610027E1,9.203549E0,8.58326E0,0E0,8.2117414E-1,0E0,9.217682E-1,0E0,0E0,0E0,0E0],"parents":[2147483647,0,0,1,1,2,2,4,4,6,6],"right_children":[2,4,6,-1,8,-1,10,-1,-1,-1,-1],"split_conditions":[2.2841103E-2,7.566019E-2,5.1144725E-3,7.767986E-1,5.46962E-2,5.43181E-1,5.7609365E-3,9.889272E-2,-6.2505466E-1,-1.0437177E-2,-7.928147E-1],"split_indices":[323,2731,2588,0,2570,0,2227,0,0,0,0],"split_type":[0,0,0,0,0,0,0,0,0,0,0],"sum_hessian":[6.7778786E1,2.2496786E1,4.5281998E1,1.8424896E1,4.07189E0,2.719666E0,4.2562332E1,1.0053316E0,3.0665581E0,1.0135874E0,4.1548744E1],"tree_param":{"num_deleted":"0","num_feature":"3600","num_nodes":"11","size_leaf_vector":"0"}},{"base_weights":[-3.0884838E-1,6.740644E-1,-8.093089E-1,7.1402806E-1,-2.997385E-1,3.4176153E-1,-9.2158484E-1,-6.461787E-2,-7.670098E-1],"categories":[],"categories_nodes":[],"categories_segments":[],"categories_sizes":[],"default_left":[0,0,0,0,0,0,0,0,0],"id":5,"left_children":[1,3,5,-1,-1,-1,7,-1,-1],"loss_changes":[1.7677074E1,3.151513E0,3.6605558E0,0E0,0E0,0E0,6.067982E-1,0E0,0E0],"parents":[2147483647,0,0,1,1,2,2,6,6],"right_children":[2,4,6,-1,-1,-1,8,-1,-1],"split_conditions":[3.5598263E-2,7.082597E-2,7.3312526E-3,7.1402806E-1,-2.997385E-1,3.4176153E-1,8.960434E-3,-6.461787E-2,-7.670098E-1],"split_indices":[2272,8,2732,0,0,0,1894,0,0],"split_type":[0,0,0,0,0,0,0,0,0],"sum_hessian":[3.382666E1,1.1295406E1,2.2531256E1,9.471308E0,1.824099E0,1.6420622E0,2.0889193E1,1.0188674E0,1.9870325E1],"tree_param":{"num_deleted":"0","num_feature":"3600","num_nodes":"9","size_leaf_vector":"0"}},{"base_weights":[-2.5576857E-1,4.9191704E-1,-8.258102E-1,6.747791E-1,-3.8510913E-1,-3.0811045E-2,-7.2546643E-1,7.1051344E-3,-4.5096952E-1],"categories":[],"categories_nodes":[],"categories_segments":[],"categories_sizes":[],"default_left":[0,0,0,0,0,0,0,0,0],"id":6,"left_children":[1,3,5,-1,7,-1,-1,-1,-1],"loss_changes":[8.646849E0,3.0968878E0,6.8868685E-1,0E0,2.3435062E-1,0E0,0E0,0E0,0E0],"parents":[2147483647,0,0,1,1,2,2,4,4],"right_children":[2,4,6,-1,8,-1,-1,-1,-1],"split_conditions":[4.8651427E-2,5.029882E-2,2.9248971E-2,6.747791E-1,3.8537588E-2,-3.0811045E-2,-7.2546643E-1,7.1051344E-3,-4.5096952E-1],"split_indices":[2587,315,9,0,2618,0,0,0,0],"split_type":[0,0,0,0,0,0,0,0,0],"sum_hessian":[1.8334557E1,7.9907165E0,1.0343841E1,5.7314973E0,2.2592194E0,1.1028484E0,9.240992E0,1.0011016E0,1.2581178E0],"tree_param":{"num_deleted":"0","num_feature":"3600","num_nodes":"9","size_leaf_vector":"0"}},{"base_weights":[-2.2097501E-1,4.9786434E-1,-6.246048E-1,2.4420635E-1,-6.424109E-1],"categories":[],"categories_nodes":[],"categories_segments":[],"categories_sizes":[],"default_left":[0,0,0,0,0],"id":7,"left_children":[1,-1,3,-1,-1],"loss_changes":[4.290637E0,0E0,1.6140597E0,0E0,0E0],"parents":[2147483647,0,0,2,2],"right_children":[2,-1,4,-1,-1],"split_conditions":[2.7699986E-2,4.9786434E-1,6.193397E-3,2.4420635E-1,-6.424109E-1],"split_indices":[2723,0,358,0,0],"split_type":[0,0,0,0,0],"sum_hessian":[1.0463334E1,3.211564E0,7.2517695E0,1.0529282E0,6.1988416E0],"tree_param":{"num_deleted":"0","num_feature":"3600","num_nodes":"5","size_leaf_vector":"0"}},{"base_weights":[-1.3832027E-1,4.72226E-1,-6.296077E-1,5.1676667E-1,-9.332526E-3,-1.1188221E-1,-5.795916E-1],"categories":[],"categories_nodes":[],"categories_segments":[],"categories_sizes":[],"default_left":[0,0,0,0,0,0,0],"id":8,"left_children":[1,3,5,-1,-1,-1,-1],"loss_changes":[2.6399863E0,3.4832883E-1,1.1969781E-1,0E0,0E0,0E0,0E0],"parents":[2147483647,0,0,1,1,2,2],"right_children":[2,4,6,-1,-1,-1,-1],"split_conditions":[1.1404194E-2,1.4564375E-2,4.9779255E-2,5.1676667E-1,-9.332526E-3,-1.1188221E-1,-5.795916E-1],"split_indices":[2011,2559,2407,0,0,0,0],"split_type":[0,0,0,0,0,0,0],"sum_hessian":[6.810103E0,3.0537996E0,3.756303E0,2.0005984E0,1.0532012E0,1.0111223E0,2.7451806E0],"tree_param":{"num_deleted":"0","num_feature":"3600","num_nodes":"7","size_leaf_vector":"0"}},{"base_weights":[-9.615446E-2,4.507332E-1,-5.4186696E-1,4.3412262E-1,1.0070785E-1,-1.2685677E-1,-5.0108945E-1],"categories":[],"categories_nodes":[],"categories_segments":[],"categories_sizes":[],"default_left":[0,0,0,0,0,0,0],"id":9,"left_children":[1,3,5,-1,-1,-1,-1],"loss_changes":[1.6693612E0,2.6380897E-2,1.9708514E-2,0E0,0E0,0E0,0E0],"parents":[2147483647,0,0,1,1,2,2],"right_children":[2,4,6,-1,-1,-1,-1],"split_conditions":[3.8248345E-2,1.0649816E-2,4.5949027E-2,4.3412262E-1,1.0070785E-1,-1.2685677E-1,-5.0108945E-1],"split_indices":[179,2273,2424,0,0,0,0],"split_type":[0,0,0,0,0,0,0],"sum_hessian":[4.8465495E0,2.1712136E0,2.6753356E0,1.1697392E0,1.0014744E0,1.0028367E0,1.6724991E0],"tree_param":{"num_deleted":"0","num_feature":"3600","num_nodes":"7","size_leaf_vector":"0"}}]},"name":"gbtree"},"learner_model_param":{"base_score":"5E-1","num_class":"0","num_feature":"3600","num_target":"1"},"objective":{"name":"binary:logistic","reg_loss_param":{"scale_pos_weight":"1"}}},"version":[1,6,2]}