{"learner":{"attributes":{"best_iteration":"9","best_ntree_limit":"10"},"feature_names":[],"feature_types":[],"gradient_booster":{"model":{"gbtree_model_param":{"num_parallel_tree":"1","num_trees":"10","size_leaf_vector":"0"},"tree_info":[0,0,0,0,0,0,0,0,0,0],"trees":[{"base_weights":[-8.211826E-1,-1.8527769E0,1.8600682E0,-1.9350913E0,9.6629214E-1,-4.4444445E-1,1.8894646E0,-1.9529248E0,-1.1232877E0,-1.2952381E0,1.6666666E0,-1.1076924E0,8.8888896E-1,1.2666667E0,1.5631479E0,-1.5697479E0,-1.027027E0,-1.2595745E0,-2.6666668E-1,1.7647059E0,-0E0,-0E0,1.4615384E0,-0E0,-1.3217391E0,-7.2727275E-1,8E-1,4E-1,1.45E0,-5.3333336E-1,8.8888896E-1,1.3913044E0,9.2903227E-1],"categories":[],"categories_nodes":[],"categories_segments":[],"categories_sizes":[],"default_left":[0,0,0,0,0,0,0,0,0,0,0,0,0,0,0,0,0,0,0,0,0,0,0,0,0,0,0,0,0,0,0,0,0],"id":0,"left_children":[1,3,5,7,9,11,13,15,17,-1,19,-1,-1,21,-1,-1,23,-1,25,27,-1,29,31,-1,-1,-1,-1,-1,-1,-1,-1,-1,-1],"loss_changes":[2.9153137E3,1.784021E2,2.0688843E1,8.512207E0,4.2986626E1,8.1196575E0,9.149048E0,4.177246E0,6.6335945E0,0E0,2.9411774E0,0E0,0E0,7.4051247E0,0E0,0E0,5.938895E0,0E0,7.012121E0,1.2132263E-1,0E0,4.444444E0,1.473732E-1,0E0,0E0,0E0,0E0,0E0,0E0,0E0,0E0,0E0,0E0],"parents":[2147483647,0,0,1,1,2,2,3,3,4,4,5,5,6,6,7,7,8,8,10,10,13,13,16,16,18,18,19,19,21,21,22,22],"right_children":[2,4,6,8,10,12,14,16,18,-1,20,-1,-1,22,-1,-1,24,-1,26,28,-1,30,32,-1,-1,-1,-1,-1,-1,-1,-1,-1,-1],"split_conditions":[3.234375E-1,6.421875E-2,2.625E-2,3.103125E-1,2.6859376E-1,3.396875E-1,5.625E-2,5.6875E-2,4.640625E-2,-1.2952381E0,2.1453124E-1,-1.1076924E0,8.8888896E-1,3.3578125E-1,1.5631479E0,-1.5697479E0,1.953125E-1,-1.2595745E0,4.315625E-1,2.884375E-1,-0E0,4.1828126E-1,3.4453124E-1,-0E0,-1.3217391E0,-7.2727275E-1,8E-1,4E-1,1.45E0,-5.3333336E-1,8.8888896E-1,1.3913044E0,9.2903227E-1],"split_indices":[0,3,3,0,0,0,3,3,3,0,2,0,0,0,0,0,2,0,1,0,0,1,1,0,0,0,0,0,0,0,0,0,0],"split_type":[0,0,0,0,0,0,0,0,0,0,0,0,0,0,0,0,0,0,0,0,0,0,0,0,0,0,0,0,0,0,0,0,0],"sum_hessian":[1.05175E3,7.5975E2,2.92E2,7.385E2,2.125E1,3.5E0,2.885E2,7.2125E2,1.725E1,4.25E0,1.7E1,2.25E0,1.25E0,2.9E1,2.595E2,7.13E2,8.25E0,1.075E1,6.5E0,1.6E1,1E0,4E0,2.5E1,3.5E0,4.75E0,4.5E0,2E0,1E0,1.5E1,2.75E0,1.25E0,1.05E1,1.45E1],"tree_param":{"num_deleted":"0","num_feature":"26","num_nodes":"33","size_leaf_vector":"0"}},{"base_weights":[-4.6779653E-1,-1.0596416E0,1.0647249E0,-1.1175942E0,4.961819E-1,4.897232E-1,1.1486621E0,-1.1613718E0,-6.837938E-1,-7.55664E-1,8.649414E-1,-7.960086E-2,7.2495514E-1,8.850452E-1,9.605018E-1,-1.1691359E0,-2.9466653E-1,8.9615434E-1,-7.9929525E-1,2.514181E-1,1.0677723E0,-8.0907786E-1,5.2462566E-1,8.865968E-1,1.6942288E-1,3.9694718E-1,9.139471E-1,-6.852725E-1,-9.4833976E-1,5.2697486E-1,-6.4039457E-1,-8.0941355E-1,-1.7138433E-1,7.069441E-1,-5.331553E-1,2.1473177E-1,9.0857613E-1,-1.1584052E-1,-7.9267925E-1,6.7894226E-1,-1.0443833E-1,7.409505E-1,-3.4352097E-1,-3.8638137E-2,7.744339E-1],"categories":[],"categories_nodes":[],"categories_segments":[],"categories_sizes":[],"default_left":[0,0,0,0,0,0,0,0,0,0,0,0,0,0,0,0,0,0,0,0,0,0,0,0,0,0,0,0,0,0,0,0,0,0,0,0,0,0,0,0,0,0,0,0,0],"id":1,"left_children":[1,3,5,7,9,11,13,15,17,-1,19,21,23,25,-1,27,29,-1,31,33,35,37,39,-1,41,43,-1,-1,-1,-1,-1,-1,-1,-1,-1,-1,-1,-1,-1,-1,-1,-1,-1,-1,-1],"loss_changes":[5.588093E2,4.059253E1,7.7290344E0,7.341797E0,9.657295E0,3.2219048E0,9.8083496E-1,2.2644653E0,9.584755E0,0E0,1.445138E0,3.8664265E0,3.3932953E0,3.110323E0,0E0,9.39209E-1,2.83211E0,0E0,4.727955E0,3.3334951E0,2.4052525E-1,3.3120012E-1,1.1464036E0,0E0,4.0442185E0,2.9268584E0,0E0,0E0,0E0,0E0,0E0,0E0,0E0,0E0,0E0,0E0,0E0,0E0,0E0,0E0,0E0,0E0,0E0,0E0,0E0],"parents":[2147483647,0,0,1,1,2,2,3,3,4,4,5,5,6,6,7,7,8,8,10,10,11,11,12,12,13,13,15,15,16,16,18,18,19,19,20,20,21,21,22,22,24,24,25,25],"right_children":[2,4,6,8,10,12,14,16,18,-1,20,22,24,26,-1,28,30,-1,32,34,36,38,40,-1,42,44,-1,-1,-1,-1,-1,-1,-1,-1,-1,-1,-1,-1,-1,-1,-1,-1,-1,-1,-1],"split_conditions":[3.2703125E-1,6.421875E-2,5.5625E-2,4.828125E-2,2.6859376E-1,3.4875E-1,3.5765624E-1,3.1890625E-1,1.7E-1,-7.55664E-1,7.40625E-2,3.3125E-2,4.546875E-2,7.921875E-2,9.605018E-1,4.2734376E-1,3.5E-2,8.9615434E-1,2.9890624E-1,7.171875E-2,2.925E-1,2.5140625E-1,5.109375E-2,8.865968E-1,3.303125E-1,3.9421874E-1,9.139471E-1,-6.852725E-1,-9.4833976E-1,5.2697486E-1,-6.4039457E-1,-8.0941355E-1,-1.7138433E-1,7.069441E-1,-5.331553E-1,2.1473177E-1,9.0857613E-1,-1.1584052E-1,-7.9267925E-1,6.7894226E-1,-1.0443833E-1,7.409505E-1,-3.4352097E-1,-3.8638137E-2,7.744339E-1],"split_indices":[0,3,3,3,0,0,0,0,2,0,3,3,3,3,0,1,3,0,0,3,0,2,3,0,1,1,0,0,0,0,0,0,0,0,0,0,0,0,0,0,0,0,0,0,0],"split_type":[0,0,0,0,0,0,0,0,0,0,0,0,0,0,0,0,0,0,0,0,0,0,0,0,0,0,0,0,0,0,0,0,0,0,0,0,0,0,0,0,0,0,0,0,0],"sum_hessian":[6.13853E2,4.4305713E2,1.7079587E2,4.27418E2,1.5639148E1,2.2626957E1,1.4816891E2,3.8671487E2,4.0703125E1,2.8688602E0,1.27702875E1,6.8089905E0,1.58179655E1,2.7367287E1,1.2080162E2,3.8293555E2,3.7793095E0,1.9258146E0,3.877731E1,3.7293346E0,9.040953E0,2.9311771E0,3.8778133E0,8.7712755E0,7.04669E0,1.03266325E1,1.7040653E1,2.1623184E1,3.6131238E2,1.205297E0,2.5740123E0,2.7911621E1,1.0865688E1,2.230271E0,1.4990634E0,1.0961254E0,7.9448276E0,1.0157521E0,1.9154252E0,2.3969312E0,1.4808823E0,2.8713446E0,4.1753454E0,6.317066E0,4.009566E0],"tree_param":{"num_deleted":"0","num_feature":"26","num_nodes":"45","size_leaf_vector":"0"}},{"base_weights":[-3.6324745E-1,-8.4601426E-1,8.725742E-1,-9.921722E-1,-1.9362402E-1,3.2257852E-1,9.8572665E-1,-5.841039E-1,-1.03953E0,1.6796021E-1,-7.8409004E-1,-3.6221564E-1,4.8359606E-1,8.4403384E-1,5.663909E-1,-7.526176E-1,-3.9186954E-1,-4.7157305E-1,-8.3593315E-1,-4.7957665E-1,7.489196E-1,-3.489751E-1,-9.5975107E-1,-5.407441E-1,1.8012246E-2,8.493492E-2,8.8422656E-1,8.180593E-1,-4.359601E-1,2.4580644E-1,-5.161832E-1,-5.0136536E-1,-4.6768542E-2,-2.6173234E-2,-7.3890704E-1,8.0578405E-1,2.8306744E-1,2.2713518E-1,-4.42214E-1,-8.2251215E-1,-2.6185292E-1,6.5578496E-1,-3.5333753E-1,2.2780617E-1,7.601637E-1,7.6774764E-1,1.7343675E-1],"categories":[],"categories_nodes":[],"categories_segments":[],"categories_sizes":[],"default_left":[0,0,0,0,0,0,0,0,0,0,0,0,0,0,0,0,0,0,0,0,0,0,0,0,0,0,0,0,0,0,0,0,0,0,0,0,0,0,0,0,0,0,0,0,0,0,0],"id":2,"left_children":[1,3,5,7,9,11,13,15,17,19,21,23,25,-1,27,-1,29,31,-1,33,35,37,39,-1,-1,41,43,45,-1,-1,-1,-1,-1,-1,-1,-1,-1,-1,-1,-1,-1,-1,-1,-1,-1,-1,-1],"loss_changes":[1.9428745E2,2.210025E1,5.384018E0,3.079239E0,9.532878E0,2.0628786E0,1.5970383E0,1.1478744E0,2.62146E-2,1.0942607E1,9.567795E-1,4.7759038E-1,2.2070882E0,0E0,4.04519E0,0E0,3.0476124E0,1.822995E-1,0E0,2.7307208E0,1.1968002E0,9.8651326E-1,1.5948772E-1,0E0,0E0,3.5614989E0,7.1020126E-3,7.195153E-1,0E0,0E0,0E0,0E0,0E0,0E0,0E0,0E0,0E0,0E0,0E0,0E0,0E0,0E0,0E0,0E0,0E0,0E0,0E0],"parents":[2147483647,0,0,1,1,2,2,3,3,4,4,5,5,6,6,7,7,8,8,9,9,10,10,11,11,12,12,14,14,16,16,17,17,19,19,20,20,21,21,22,22,25,25,26,26,27,27],"right_children":[2,4,6,8,10,12,14,16,18,20,22,24,26,-1,28,-1,30,32,-1,34,36,38,40,-1,-1,42,44,46,-1,-1,-1,-1,-1,-1,-1,-1,-1,-1,-1,-1,-1,-1,-1,-1,-1,-1,-1],"split_conditions":[3.2953125E-1,4.703125E-2,5.5625E-2,4.3515626E-1,2.1421875E-1,3.421875E-1,3.8E-1,4.1125E-1,8.28125E-3,2.8796875E-1,2.2234374E-1,3.3125E-2,3.6484376E-1,8.4403384E-1,1.9609375E-1,-7.526176E-1,4.1828126E-1,2.190625E-1,-8.3593315E-1,5.34375E-2,3.1234375E-1,4.1125E-1,3.140625E-1,-5.407441E-1,1.8012246E-2,3.3875E-1,1.915625E-1,1.8328124E-1,-4.359601E-1,2.4580644E-1,-5.161832E-1,-5.0136536E-1,-4.6768542E-2,-2.6173234E-2,-7.3890704E-1,8.0578405E-1,2.8306744E-1,2.2713518E-1,-4.42214E-1,-8.2251215E-1,-2.6185292E-1,6.5578496E-1,-3.5333753E-1,2.2780617E-1,7.601637E-1,7.6774764E-1,1.7343675E-1],"split_indices":[0,3,3,1,2,0,1,1,3,0,2,3,1,0,2,0,1,0,0,3,0,1,0,0,0,1,2,2,0,0,0,0,0,0,0,0,0,0,0,0,0,0,0,0,0,0,0],"split_type":[0,0,0,0,0,0,0,0,0,0,0,0,0,0,0,0,0,0,0,0,0,0,0,0,0,0,0,0,0,0,0,0,0,0,0,0,0,0,0,0,0,0,0,0,0,0,0],"sum_hessian":[3.23413E2,2.327902E2,9.062277E1,1.8975723E2,4.303298E1,1.6119955E1,7.4502815E1,2.1118574E1,1.6863866E2,2.7133041E1,1.58999405E1,2.8308873E0,1.3289068E1,6.2633583E1,1.1869233E1,6.0323606E0,1.5086214E1,2.4162154E0,1.6622244E2,1.2913819E1,1.4219222E1,5.4318385E0,1.04681015E1,1.142438E0,1.6884493E0,7.2683997E0,6.020668E0,9.89285E0,1.9763837E0,3.9563124E0,1.1129902E1,1.3806945E0,1.0355209E0,6.9717445E0,5.9420743E0,7.660995E0,6.558227E0,1.2272707E0,4.2045674E0,8.881955E0,1.5861464E0,2.8020105E0,4.4663897E0,1.1240085E0,4.89666E0,7.524394E0,2.3684554E0],"tree_param":{"num_deleted":"0","num_feature":"26","num_nodes":"47","size_leaf_vector":"0"}},{"base_weights":[-2.8592652E-1,-7.680054E-1,5.3985167E-1,-9.056147E-1,-1.16972655E-1,1.4968799E-1,8.9704585E-1,-1.8623656E-1,-9.489155E-1,4.7246328E-1,-3.5751382E-1,-5.6972705E-2,7.302907E-1,4.0648136E-1,7.987754E-1,-5.739355E-1,1.7778495E-1,-9.5897907E-1,-2.9457355E-2,1.2493529E0,-3.4377238E-1,-6.202883E-1,1.3525146E-1,3.8415674E-2,-6.514525E-1,-3.8558137E-2,6.2596786E-1,5.3668034E-1,-3.00467E-1,-3.829466E-1,-7.913374E-1,9.13161E-2,1.4552876E0,-5.9237325E-1,2.2216299E-1,-7.2534174E-1,-2.4204841E-1,5.3115743E-1,-4.391396E-1,-7.604372E-2,5.692837E-1,4.861434E-1,-8.933119E-1],"categories":[],"categories_nodes":[],"categories_segments":[],"categories_sizes":[],"default_left":[0,0,0,0,0,0,0,0,0,0,0,0,0,0,0,0,0,0,0,0,0,0,0,0,0,0,0,0,0,0,0,0,0,0,0,0,0,0,0,0,0,0,0],"id":3,"left_children":[1,3,5,7,9,11,13,15,17,19,21,23,-1,25,-1,-1,27,29,-1,31,33,35,37,39,-1,41,-1,-1,-1,-1,-1,-1,-1,-1,-1,-1,-1,-1,-1,-1,-1,-1,-1],"loss_changes":[7.273453E1,1.0207191E1,9.279789E0,2.7788162E0,3.179682E0,5.3332653E0,1.3387794E0,1.4097443E0,7.839203E-1,4.605204E0,2.110349E0,2.0028517E0,0E0,1.3175988E0,0E0,0E0,1.5441777E0,8.060608E-1,0E0,2.1140823E0,1.1906394E0,6.7073345E-1,2.6302743E0,2.3312845E0,0E0,3.7973335E0,0E0,0E0,0E0,0E0,0E0,0E0,0E0,0E0,0E0,0E0,0E0,0E0,0E0,0E0,0E0,0E0,0E0],"parents":[2147483647,0,0,1,1,2,2,3,3,4,4,5,5,6,6,7,7,8,8,9,9,10,10,11,11,13,13,16,16,17,17,19,19,20,20,21,21,22,22,23,23,25,25],"right_children":[2,4,6,8,10,12,14,16,18,20,22,24,-1,26,-1,-1,28,30,-1,32,34,36,38,40,-1,42,-1,-1,-1,-1,-1,-1,-1,-1,-1,-1,-1,-1,-1,-1,-1,-1,-1],"split_conditions":[3.0828124E-1,4.890625E-2,3.5765624E-1,4.1828126E-1,1.821875E-1,7.921875E-2,5.515625E-2,2.84375E-2,3.0484375E-1,5.34375E-2,5.6875E-2,3.55625E-1,7.302907E-1,2.2765625E-1,7.987754E-1,-5.739355E-1,3.390625E-2,1.421875E-2,-2.9457355E-2,2.4828126E-1,2.8765625E-1,1.996875E-1,2.06875E-1,3.4875E-1,-6.514525E-1,2.2171874E-1,6.2596786E-1,5.3668034E-1,-3.00467E-1,-3.829466E-1,-7.913374E-1,9.13161E-2,1.4552876E0,-5.9237325E-1,2.2216299E-1,-7.2534174E-1,-2.4204841E-1,5.3115743E-1,-4.391396E-1,-7.604372E-2,5.692837E-1,4.861434E-1,-8.933119E-1],"split_indices":[0,3,0,1,2,3,3,3,0,3,3,0,0,2,0,0,3,3,0,0,0,2,2,0,0,2,0,0,0,0,0,0,0,0,0,0,0,0,0,0,0,0,0],"split_type":[0,0,0,0,0,0,0,0,0,0,0,0,0,0,0,0,0,0,0,0,0,0,0,0,0,0,0,0,0,0,0,0,0,0,0,0,0,0,0,0,0,0,0],"sum_hessian":[1.8066713E2,1.1411702E2,6.655012E1,9.388206E1,2.0234964E1,3.248537E1,3.4064747E1,5.631076E0,8.825098E1,5.584997E0,1.4649967E1,2.6291285E1,6.194084E0,6.694168E0,2.7370579E1,1.8950253E0,3.7360506E0,8.7237045E1,1.0139357E0,2.5895996E0,2.9953976E0,9.385969E0,5.263999E0,2.4193373E1,2.0979125E0,3.4765172E0,3.2176507E0,1.8634062E0,1.8726444E0,6.156437E0,8.1080605E1,1.2665035E0,1.3230963E0,1.7114795E0,1.283918E0,3.9615417E0,5.424427E0,2.9860802E0,2.2779188E0,2.0907024E1,3.2863476E0,2.446399E0,1.0301183E0],"tree_param":{"num_deleted":"0","num_feature":"26","num_nodes":"43","size_leaf_vector":"0"}},{"base_weights":[-1.9856417E-1,-7.309222E-1,2.4104866E-1,2.2004601E-1,-7.915022E-1,-2.465922E-2,7.3380834E-1,9.1932124E-1,-5.266048E-1,-9.103691E-1,-2.1107288E-1,1.0431617E0,-1.1294793E-1,8.0372465E-1,-1.2659101E-1,-1.3436823E-1,-9.315041E-1,1.803644E-1,-5.550622E-1,1.1316715E0,1.09356895E-1,-2.3689112E-1,4.293802E-1,5.1526904E-1,7.5872535E-1,-2.4426416E-1,-7.633079E-1,-4.56243E-1,4.0421897E-1,-6.059961E-1,3.1065544E-2,-5.865204E-2,-5.3292245E-1,1.7808767E-1,5.7083315E-1,6.942628E-1,-1.0062548E-1],"categories":[],"categories_nodes":[],"categories_segments":[],"categories_sizes":[],"default_left":[0,0,0,0,0,0,0,0,0,0,0,0,0,0,0,0,0,0,0,0,0,0,0,0,0,0,0,0,0,0,0,0,0,0,0,0,0],"id":4,"left_children":[1,3,5,7,9,11,13,-1,-1,15,17,19,21,23,-1,-1,25,27,29,-1,-1,31,33,35,-1,-1,-1,-1,-1,-1,-1,-1,-1,-1,-1,-1,-1],"loss_changes":[2.6816149E1,3.1544533E0,8.27955E0,3.9231734E0,3.1783218E0,4.0737605E0,1.5078468E0,0E0,0E0,4.7504044E-1,1.3935251E0,9.1841483E-1,2.7675009E0,3.7491417E-1,0E0,0E0,2.6008606E-1,1.5680773E0,6.735709E-1,0E0,0E0,2.2631092E0,2.955259E-1,2.1662123E0,0E0,0E0,0E0,0E0,0E0,0E0,0E0,0E0,0E0,0E0,0E0,0E0,0E0],"parents":[2147483647,0,0,1,1,2,2,3,3,4,4,5,5,6,6,9,9,10,10,11,11,12,12,13,13,16,16,17,17,18,18,21,21,22,22,23,23],"right_children":[2,4,6,8,10,12,14,-1,-1,16,18,20,22,24,-1,-1,26,28,30,-1,-1,32,34,36,-1,-1,-1,-1,-1,-1,-1,-1,-1,-1,-1,-1,-1],"split_conditions":[2.9015625E-1,4.2734376E-1,6.609375E-2,3.390625E-2,5.015625E-2,1.825E-1,4.2203125E-1,9.1932124E-1,-5.266048E-1,8.28125E-3,5.34375E-2,5.875E-2,3.56875E-1,7.921875E-2,-1.2659101E-1,-1.3436823E-1,2.1515626E-1,4.9125E-1,6.90625E-2,1.1316715E0,1.09356895E-1,5.34375E-2,2.3890625E-1,7.59375E-2,7.5872535E-1,-2.4426416E-1,-7.633079E-1,-4.56243E-1,4.0421897E-1,-6.059961E-1,3.1065544E-2,-5.865204E-2,-5.3292245E-1,1.7808767E-1,5.7083315E-1,6.942628E-1,-1.0062548E-1],"split_indices":[0,1,3,3,3,2,1,0,0,3,3,3,0,3,0,0,0,1,3,0,0,3,2,3,0,0,0,0,0,0,0,0,0,0,0,0,0],"split_type":[0,0,0,0,0,0,0,0,0,0,0,0,0,0,0,0,0,0,0,0,0,0,0,0,0,0,0,0,0,0,0,0,0,0,0,0,0],"sum_hessian":[1.1283069E2,5.0732494E1,6.2098194E1,2.8806388E0,4.7851856E1,4.0960995E1,2.1137197E1,1.2499788E0,1.63066E0,3.9246143E1,8.605713E0,2.302135E0,3.8658863E1,1.9692743E1,1.4444538E0,1.3339939E0,3.7912148E1,4.2477365E0,4.357977E0,1.2353791E0,1.0667559E0,3.192577E1,6.7330914E0,8.101669E0,1.1591074E1,1.8278873E0,3.6084263E1,1.0550003E0,3.192736E0,3.0446987E0,1.3132782E0,2.3964548E1,7.961222E0,4.9295115E0,1.8035794E0,4.9987454E0,3.1029243E0],"tree_param":{"num_deleted":"0","num_feature":"26","num_nodes":"37","size_leaf_vector":"0"}},{"base_weights":[-1.0450429E-1,-7.1489507E-1,1.3044603E-1,-8.6477655E-1,-1.7179121E-1,2.5448326E-2,8.058371E-1,-2.5475618E-1,-7.264733E-1,1.4635502E-1,-5.688458E-1,-2.5755832E-1,1.7717233E-1,1.2865274E-1,7.003008E-1,5.769474E-1,-4.7458634E-1,-4.5689783E-1,2.3950754E-1,1.0250344E-1,9.772238E-1,7.3012424E-1,6.60192E-2,3.523688E-1,-4.502554E-1,4.5178095E-1,-1.5711409E-1,1.9410235E-1,-1.6628276E-1],"categories":[],"categories_nodes":[],"categories_segments":[],"categories_sizes":[],"default_left":[0,0,0,0,0,0,0,0,0,0,0,0,0,0,0,0,0,0,0,0,0,0,0,0,0,0,0,0,0],"id":5,"left_children":[1,3,5,7,9,11,13,-1,-1,15,-1,17,19,-1,-1,21,-1,23,25,27,-1,-1,-1,-1,-1,-1,-1,-1,-1],"loss_changes":[1.2216576E1,1.7765493E0,4.3680773E0,1.4356613E-1,1.1957269E0,2.389742E0,2.3123646E-1,0E0,0E0,1.8808284E0,0E0,2.0376658E0,2.6923447E0,0E0,0E0,5.1565385E-1,0E0,1.6008341E0,9.935874E-1,1.5643557E0,0E0,0E0,0E0,0E0,0E0,0E0,0E0,0E0,0E0],"parents":[2147483647,0,0,1,1,2,2,3,3,4,4,5,5,6,6,9,9,11,11,12,12,15,15,17,17,18,18,19,19],"right_children":[2,4,6,8,10,12,14,-1,-1,16,-1,18,20,-1,-1,22,-1,24,26,28,-1,-1,-1,-1,-1,-1,-1,-1,-1],"split_conditions":[2.76875E-1,5.109375E-2,3.7203124E-1,2.1515626E-1,2.6203126E-1,3.984375E-2,5.0625E-2,-2.5475618E-1,-7.264733E-1,5.34375E-2,-5.688458E-1,3.1890625E-1,4.8140624E-1,1.2865274E-1,7.003008E-1,1.7625E-1,-4.7458634E-1,1.859375E-2,2.50625E-1,2.2046874E-1,9.772238E-1,7.3012424E-1,6.60192E-2,3.523688E-1,-4.502554E-1,4.5178095E-1,-1.5711409E-1,1.9410235E-1,-1.6628276E-1],"split_indices":[0,3,0,0,0,3,3,0,0,3,0,0,1,0,0,2,0,3,2,2,0,0,0,0,0,0,0,0,0],"split_type":[0,0,0,0,0,0,0,0,0,0,0,0,0,0,0,0,0,0,0,0,0,0,0,0,0,0,0,0,0],"sum_hessian":[8.353521E1,2.2649649E1,6.088556E1,1.7286713E1,5.3629355E0,5.359175E1,7.293806E0,1.8833919E0,1.5403321E1,3.8312492E0,1.5316863E0,1.8460443E1,3.513131E1,1.0321851E0,6.261621E0,2.5604484E0,1.2708008E0,1.32339945E1,5.22645E0,3.381199E1,1.3193212E0,1.0211802E0,1.5392683E0,1.0637343E0,1.217026E1,2.82398E0,2.4024699E0,2.3444946E1,1.0367041E1],"tree_param":{"num_deleted":"0","num_feature":"26","num_nodes":"29","size_leaf_vector":"0"}},{"base_weights":[-6.327785E-2,1.5949394E-1,-4.0817437E-1,7.512911E-2,6.393172E-1,-5.56939E-2,-6.6909385E-1,-6.67425E-1,1.6297291E-1,-2.5555402E-1,7.789704E-1,3.2162222E-1,-8.414371E-1,4.4959542E-1,-1.0486778E0,-4.6332657E-1,2.4292237E-1,-4.9184313E-1,1.477897E-1,-7.2161496E-1,-1.9039729E-1,1.1304428E-1,-5.5203515E-1,1.07684545E-1,6.305277E-1,-1.8059818E-1,-6.5688556E-1,5.010962E-1,-1.0488363E-1],"categories":[],"categories_nodes":[],"categories_segments":[],"categories_sizes":[],"default_left":[0,0,0,0,0,0,0,0,0,0,0,0,0,0,0,0,0,0,0,0,0,0,0,0,0,0,0,0,0],"id":6,"left_children":[1,3,5,7,-1,9,11,13,15,17,-1,-1,19,-1,-1,21,23,25,27,-1,-1,-1,-1,-1,-1,-1,-1,-1,-1],"loss_changes":[5.3159084E0,2.219427E0,2.4550934E0,2.615002E0,0E0,2.844872E0,3.1962228E0,4.1070957E0,1.8731642E0,1.1552464E0,0E0,0E0,2.8467178E-1,0E0,0E0,6.9028914E-1,1.7741516E0,4.624443E-1,7.448199E-1,0E0,0E0,0E0,0E0,0E0,0E0,0E0,0E0,0E0,0E0],"parents":[2147483647,0,0,1,1,2,2,3,3,5,5,6,6,7,7,8,8,9,9,12,12,15,15,16,16,17,17,18,18],"right_children":[2,4,6,8,-1,10,12,14,16,18,-1,-1,20,-1,-1,22,24,26,28,-1,-1,-1,-1,-1,-1,-1,-1,-1,-1],"split_conditions":[4.3796876E-1,7.921875E-2,1.9296876E-1,1.903125E-1,6.393172E-1,1.915625E-1,1.421875E-2,1.784375E-1,2.84375E-2,2.8796875E-1,7.789704E-1,3.2162222E-1,5.140625E-2,4.4959542E-1,-1.0486778E0,2.140625E-2,2.590625E-1,1.821875E-1,2.95625E-1,-7.2161496E-1,-1.9039729E-1,1.1304428E-1,-5.5203515E-1,1.07684545E-1,6.305277E-1,-1.8059818E-1,-6.5688556E-1,5.010962E-1,-1.0488363E-1],"split_indices":[1,3,2,2,0,2,3,2,3,0,0,0,3,0,0,3,2,2,0,0,0,0,0,0,0,0,0,0,0],"split_type":[0,0,0,0,0,0,0,0,0,0,0,0,0,0,0,0,0,0,0,0,0,0,0,0,0,0,0,0,0],"sum_hessian":[6.734033E1,4.1240364E1,2.6099966E1,3.742215E1,3.8182163E0,1.16182E1,1.4481765E1,3.2607536E0,3.4161396E1,1.0358782E1,1.2594188E0,1.8224477E0,1.2659318E1,1.1637233E0,2.0970304E0,3.3243346E0,3.083706E1,6.3937464E0,3.9650352E0,1.1054703E1,1.6046145E0,1.0093187E0,2.3150158E0,2.6766508E1,4.070553E0,4.468295E0,1.9254512E0,1.0011549E0,2.9638803E0],"tree_param":{"num_deleted":"0","num_feature":"26","num_nodes":"29","size_leaf_vector":"0"}},{"base_weights":[-3.69048E-2,1.2712711E-1,-2.4199365E-1,6.246595E-1,4.165562E-2,-5.6180745E-1,3.73642E-2,9.785886E-2,-6.00414E-1,-8.0592555E-1,-6.714998E-2,-3.7651736E-1,2.4268724E-1,3.017099E-1,-1.2415101E-1,-1.8737182E-1,-7.1819234E-1,3.694624E-1,-5.3624034E-1,9.790656E-2,-5.892437E-1,7.4300504E-1,-9.6070684E-2,-1.2625863E-1,4.8717448E-1,-5.39612E-1,1.0321809E-1,-1.5028743E-1,-5.186031E-1,-5.795142E-1,-1.7950965E-1,8.8229465E-1,1.4714402E-1,-5.471577E-1,1.4182691E-1],"categories":[],"categories_nodes":[],"categories_segments":[],"categories_sizes":[],"default_left":[0,0,0,0,0,0,0,0,0,0,0,0,0,0,0,0,0,0,0,0,0,0,0,0,0,0,0,0,0,0,0,0,0,0,0],"id":7,"left_children":[1,3,5,-1,7,9,11,13,-1,15,17,19,21,23,25,-1,-1,-1,27,-1,29,31,33,-1,-1,-1,-1,-1,-1,-1,-1,-1,-1,-1,-1],"loss_changes":[2.12047E0,1.932456E0,2.5179873E0,0E0,1.5052384E0,1.526938E0,1.4387646E0,1.4364825E0,0E0,2.4514103E-1,1.5918982E0,6.716882E-1,1.9706473E0,2.4127107E0,2.2475789E0,0E0,0E0,0E0,8.320272E-3,0E0,4.1236877E-2,7.304046E-1,1.3373116E0,0E0,0E0,0E0,0E0,0E0,0E0,0E0,0E0,0E0,0E0,0E0,0E0],"parents":[2147483647,0,0,1,1,2,2,4,4,5,5,6,6,7,7,9,9,10,10,11,11,12,12,13,13,14,14,18,18,20,20,21,21,22,22],"right_children":[2,4,6,-1,8,10,12,14,-1,16,18,20,22,24,26,-1,-1,-1,28,-1,30,32,34,-1,-1,-1,-1,-1,-1,-1,-1,-1,-1,-1,-1],"split_conditions":[2.2046874E-1,3.7359375E-1,3.0484375E-1,6.246595E-1,5.5828124E-1,2.590625E-1,2.2765625E-1,5.34375E-2,-6.00414E-1,1.34375E-2,2.675E-1,2.2375E-1,2.384375E-1,4.546875E-2,5.96875E-2,-1.8737182E-1,-7.1819234E-1,3.694624E-1,2.8484374E-1,9.790656E-2,3.7203124E-1,3.2109374E-1,3.234375E-1,-1.2625863E-1,4.8717448E-1,-5.39612E-1,1.0321809E-1,-1.5028743E-1,-5.186031E-1,-5.795142E-1,-1.7950965E-1,8.8229465E-1,1.4714402E-1,-5.471577E-1,1.4182691E-1],"split_indices":[2,1,0,0,1,2,2,3,0,3,2,2,2,3,3,0,0,0,0,0,1,0,0,0,0,0,0,0,0,0,0,0,0,0,0],"split_type":[0,0,0,0,0,0,0,0,0,0,0,0,0,0,0,0,0,0,0,0,0,0,0,0,0,0,0,0,0,0,0,0,0,0,0],"sum_hessian":[6.1117622E1,3.416905E1,2.6948574E1,3.0103095E0,3.1158737E1,1.2093106E1,1.4855469E1,2.9912937E1,1.2458006E0,7.675778E0,4.4173284E0,4.649474E0,1.0205995E1,1.5407066E1,1.450587E1,1.5534896E0,6.122288E0,2.083413E0,2.3339155E0,1.5168183E0,3.1326556E0,3.6386635E0,6.567331E0,6.3685937E0,9.038473E0,4.0460606E0,1.0459809E1,1.2191781E0,1.1147374E0,1.5668504E0,1.5658052E0,1.6219727E0,2.016691E0,1.6077172E0,4.959614E0],"tree_param":{"num_deleted":"0","num_feature":"26","num_nodes":"35","size_leaf_vector":"0"}},{"base_weights":[-6.560374E-2,-4.4739544E-1,6.8652793E-3,-6.1710733E-1,-8.419485E-2,4.8375285E-1,-3.735683E-2,-6.4836043E-1,-3.853321E-2,2.1080182E-1,-2.527905E-1,-5.238479E-2,5.574596E-1,-5.8012474E-1,7.674295E-4,4.6643406E-1,-3.3453483E-2,-5.020019E-2,4.5762536E-1],"categories":[],"categories_nodes":[],"categories_segments":[],"categories_sizes":[],"default_left":[0,0,0,0,0,0,0,0,0,0,0,0,0,0,0,0,0,0,0],"id":8,"left_children":[1,3,5,7,9,11,13,-1,-1,-1,-1,-1,-1,-1,15,-1,17,-1,-1],"loss_changes":[1.5811609E0,5.098398E-1,1.0497912E0,6.268778E-1,4.1051665E-1,5.3986514E-1,1.1988665E0,0E0,0E0,0E0,0E0,0E0,0E0,0E0,9.021832E-1,0E0,7.948416E-1,0E0,0E0],"parents":[2147483647,0,0,1,1,2,2,3,3,4,4,5,5,6,6,14,14,16,16],"right_children":[2,4,6,8,10,12,14,-1,-1,-1,-1,-1,-1,-1,16,-1,18,-1,-1],"split_conditions":[2.6734376E-1,5.140625E-2,3.4453124E-1,5.389063E-1,5.0390625E-1,5.0625E-2,3.5109374E-1,-6.4836043E-1,-3.853321E-2,2.1080182E-1,-2.527905E-1,-5.238479E-2,5.574596E-1,-5.8012474E-1,3.6328125E-1,4.6643406E-1,5.0140625E-1,-5.020019E-2,4.5762536E-1],"split_indices":[0,3,1,1,1,3,1,0,0,0,0,0,0,0,1,0,1,0,0],"split_type":[0,0,0,0,0,0,0,0,0,0,0,0,0,0,0,0,0,0,0],"sum_hessian":[5.6036484E1,8.1142435E0,4.7922237E1,5.053722E0,3.0605216E0,3.2232978E0,4.469894E1,3.455089E0,1.5986329E0,1.1694747E0,1.891047E0,1.0945535E0,2.1287444E0,1.4010879E0,4.329785E1,1.5131816E0,4.178467E1,4.07112E1,1.0734711E0],"tree_param":{"num_deleted":"0","num_feature":"26","num_nodes":"19","size_leaf_vector":"0"}},{"base_weights":[-1.663519E-2,-2.5268403E-1,5.2414995E-2,-5.720589E-1,1.00252606E-1,-3.137563E-1,1.23143226E-1,-6.5855E-1,-4.7024325E-2,8.071012E-1,-2.848552E-1,1.7545515E-1,-5.3783494E-1,6.298141E-1,7.729198E-2,-5.8530295E-1,-1.3037843E-1,1.21720634E-1,-5.196372E-1,3.5930574E-2,-6.823374E-1,-4.310281E-1,1.1828295E-1,-5.552147E-1,-1.3071882E-2,-6.658991E-1,-8.635073E-2,4.8104443E-2,3.832042E-1],"categories":[],"categories_nodes":[],"categories_segments":[],"categories_sizes":[],"default_left":[0,0,0,0,0,0,0,0,0,0,0,0,0,0,0,0,0,0,0,0,0,0,0,0,0,0,0,0,0],"id":9,"left_children":[1,3,5,7,9,11,13,15,-1,-1,17,-1,19,-1,21,-1,-1,-1,23,-1,25,-1,27,-1,-1,-1,-1,-1,-1],"loss_changes":[9.0559053E-1,1.473367E0,1.1570816E0,2.6067686E-1,2.6733015E0,9.867237E-1,1.0631688E0,8.623004E-2,0E0,0E0,6.504124E-1,0E0,4.8623383E-1,0E0,9.63703E-1,0E0,0E0,0E0,3.264656E-1,0E0,2.8909135E-1,0E0,6.893234E-1,0E0,0E0,0E0,0E0,0E0,0E0],"parents":[2147483647,0,0,1,1,2,2,3,3,4,4,5,5,6,6,7,7,10,10,12,12,14,14,18,18,20,20,22,22],"right_children":[2,4,6,8,10,12,14,16,-1,-1,18,-1,20,-1,22,-1,-1,-1,24,-1,26,-1,28,-1,-1,-1,-1,-1,-1],"split_conditions":[2.8453124E-1,5.025E-1,3.15625E-2,2.634375E-1,5.1171875E-1,2.98125E-1,3.28125E-2,6.109375E-2,-4.7024325E-2,8.071012E-1,1.728125E-1,1.7545515E-1,2.140625E-2,6.298141E-1,3.46875E-2,-5.8530295E-1,-1.3037843E-1,1.21720634E-1,2.040625E-1,3.5930574E-2,3.396875E-1,-4.310281E-1,7.65625E-2,-5.552147E-1,-1.3071882E-2,-6.658991E-1,-8.635073E-2,4.8104443E-2,3.832042E-1],"split_indices":[0,1,3,2,1,0,3,3,0,0,2,0,3,0,3,0,0,0,2,0,0,0,3,0,0,0,0,0,0],"split_type":[0,0,0,0,0,0,0,0,0,0,0,0,0,0,0,0,0,0,0,0,0,0,0,0,0,0,0,0,0],"sum_hessian":[5.3747795E1,1.1562349E1,4.2185444E1,5.7438464E0,5.818503E0,6.2730074E0,3.5912437E1,4.6733303E0,1.0705161E0,1.249859E0,4.5686436E0,1.8627743E0,4.4102335E0,1.2749927E0,3.4637447E1,3.65765E0,1.0156803E0,1.7196892E0,2.8489544E0,1.0132394E0,3.3969939E0,1.4032468E0,3.32342E1,1.8344249E0,1.0145297E0,2.3373444E0,1.0596497E0,2.9625015E1,3.6091835E0],"tree_param":{"num_deleted":"0","num_feature":"26","num_nodes":"29","size_leaf_vector":"0"}}]},"name":"gbtree"},"learner_model_param":{"base_score":"5E-1","num_class":"0","num_feature":"26","num_target":"1"},"objective":{"name":"binary:logistic","reg_loss_param":{"scale_pos_weight":"1"}}},"version":[1,6,2]}